[
  {
    "nodeid": 0,
    "depth": 0,
    "split": "item_id_encoded",
    "split_condition": 334.545441,
    "yes": 1,
    "no": 2,
    "missing": 2,
    "children": [
      {
        "nodeid": 1,
        "depth": 1,
        "split": "item_id_encoded",
        "split_condition": 159,
        "yes": 3,
        "no": 4,
        "missing": 4,
        "children": [
          {
            "nodeid": 3,
            "depth": 2,
            "split": "item_id_encoded",
            "split_condition": 51.625,
            "yes": 7,
            "no": 8,
            "missing": 8,
            "children": [
              {
                "nodeid": 7,
                "depth": 3,
                "split": "item_id_encoded",
                "split_condition": 32.7999992,
                "yes": 15,
                "no": 16,
                "missing": 16,
                "children": [
                  {
                    "nodeid": 15,
                    "depth": 4,
                    "split": "month_cos",
                    "split_condition": 0.5,
                    "yes": 31,
                    "no": 32,
                    "missing": 32,
                    "children": [
                      {
                        "nodeid": 31,
                        "leaf": 0.00503644114
                      },
                      {
                        "nodeid": 32,
                        "leaf": 0.0819281638
                      }
                    ]
                  },
                  {
                    "nodeid": 16,
                    "depth": 4,
                    "split": "month_cos",
                    "split_condition": 1,
                    "yes": 33,
                    "no": 34,
                    "missing": 34,
                    "children": [
                      {
                        "nodeid": 33,
                        "leaf": 0.141856089
                      },
                      {
                        "nodeid": 34,
                        "leaf": 0.39623034
                      }
                    ]
                  }
                ]
              },
              {
                "nodeid": 8,
                "depth": 3,
                "split": "month_cos",
                "split_condition": 6.12323426e-17,
                "yes": 17,
                "no": 18,
                "missing": 18,
                "children": [
                  {
                    "nodeid": 17,
                    "depth": 4,
                    "split": "month_cos",
                    "split_condition": -0.866025388,
                    "yes": 35,
                    "no": 36,
                    "missing": 36,
                    "children": [
                      {
                        "nodeid": 35,
                        "leaf": 0.118711911
                      },
                      {
                        "nodeid": 36,
                        "leaf": 0.2724424
                      }
                    ]
                  },
                  {
                    "nodeid": 18,
                    "depth": 4,
                    "split": "last30",
                    "split_condition": 168,
                    "yes": 37,
                    "no": 38,
                    "missing": 38,
                    "children": [
                      {
                        "nodeid": 37,
                        "leaf": 0.545614421
                      },
                      {
                        "nodeid": 38,
                        "leaf": 9.57999992
                      }
                    ]
                  }
                ]
              }
            ]
          },
          {
            "nodeid": 4,
            "depth": 2,
            "split": "last30",
            "split_condition": 240,
            "yes": 9,
            "no": 10,
            "missing": 10,
            "children": [
              {
                "nodeid": 9,
                "depth": 3,
                "split": "route_id_encoded",
                "split_condition": 1571.33337,
                "yes": 19,
                "no": 20,
                "missing": 20,
                "children": [
                  {
                    "nodeid": 19,
                    "depth": 4,
                    "split": "item_id_encoded",
                    "split_condition": 260,
                    "yes": 39,
                    "no": 40,
                    "missing": 40,
                    "children": [
                      {
                        "nodeid": 39,
                        "leaf": 0.726570427
                      },
                      {
                        "nodeid": 40,
                        "leaf": 1.29055488
                      }
                    ]
                  },
                  {
                    "nodeid": 20,
                    "depth": 4,
                    "split": "item_id_encoded",
                    "split_condition": 162.428574,
                    "yes": 41,
                    "no": 42,
                    "missing": 42,
                    "children": [
                      {
                        "nodeid": 41,
                        "leaf": 8.69595242
                      },
                      {
                        "nodeid": 42,
                        "leaf": 1.20463538
                      }
                    ]
                  }
                ]
              },
              {
                "nodeid": 10,
                "depth": 3,
                "split": "item_id_encoded",
                "split_condition": 162.428574,
                "yes": 21,
                "no": 22,
                "missing": 22,
                "children": [
                  {
                    "nodeid": 21,
                    "leaf": 14.3800001
                  },
                  {
                    "nodeid": 22,
                    "leaf": -0.0266666673
                  }
                ]
              }
            ]
          }
        ]
      },
      {
        "nodeid": 2,
        "depth": 1,
        "split": "route_item_avg",
        "split_condition": 100,
        "yes": 5,
        "no": 6,
        "missing": 6,
        "children": [
          {
            "nodeid": 5,
            "depth": 2,
            "split": "route_id_encoded",
            "split_condition": 64.5,
            "yes": 11,
            "no": 12,
            "missing": 12,
            "children": [
              {
                "nodeid": 11,
                "depth": 3,
                "split": "item_id_encoded",
                "split_condition": 778.428589,
                "yes": 23,
                "no": 24,
                "missing": 24,
                "children": [
                  {
                    "nodeid": 23,
                    "leaf": -0.0199999996
                  },
                  {
                    "nodeid": 24,
                    "leaf": 19.9799995
                  }
                ]
              },
              {
                "nodeid": 12,
                "depth": 3,
                "split": "frequency",
                "split_condition": 1.27659571,
                "yes": 25,
                "no": 26,
                "missing": 26,
                "children": [
                  {
                    "nodeid": 25,
                    "depth": 4,
                    "split": "item_id_encoded",
                    "split_condition": 580.200012,
                    "yes": 43,
                    "no": 44,
                    "missing": 44,
                    "children": [
                      {
                        "nodeid": 43,
                        "leaf": 0.694927752
                      },
                      {
                        "nodeid": 44,
                        "leaf": 2.11654139
                      }
                    ]
                  },
                  {
                    "nodeid": 26,
                    "depth": 4,
                    "split": "days_since_last_sale",
                    "split_condition": 15,
                    "yes": 45,
                    "no": 46,
                    "missing": 46,
                    "children": [
                      {
                        "nodeid": 45,
                        "leaf": 1.79725182
                      },
                      {
                        "nodeid": 46,
                        "leaf": 3.39034915
                      }
                    ]
                  }
                ]
              }
            ]
          },
          {
            "nodeid": 6,
            "depth": 2,
            "split": "growth_rate",
            "split_condition": 3.125,
            "yes": 13,
            "no": 14,
            "missing": 14,
            "children": [
              {
                "nodeid": 13,
                "depth": 3,
                "split": "month_cos",
                "split_condition": 6.12323426e-17,
                "yes": 27,
                "no": 28,
                "missing": 28,
                "children": [
                  {
                    "nodeid": 27,
                    "depth": 4,
                    "split": "route_item_avg",
                    "split_condition": 130,
                    "yes": 47,
                    "no": 48,
                    "missing": 48,
                    "children": [
                      {
                        "nodeid": 47,
                        "leaf": 3.53487539
                      },
                      {
                        "nodeid": 48,
                        "leaf": 1.14536822
                      }
                    ]
                  },
                  {
                    "nodeid": 28,
                    "depth": 4,
                    "split": "route_id_encoded",
                    "split_condition": 608.5,
                    "yes": 49,
                    "no": 50,
                    "missing": 50,
                    "children": [
                      {
                        "nodeid": 49,
                        "leaf": 1.21284497
                      },
                      {
                        "nodeid": 50,
                        "leaf": 7.03760052
                      }
                    ]
                  }
                ]
              },
              {
                "nodeid": 14,
                "depth": 3,
                "split": "route_id_encoded",
                "split_condition": 998.5,
                "yes": 29,
                "no": 30,
                "missing": 30,
                "children": [
                  {
                    "nodeid": 29,
                    "depth": 4,
                    "split": "frequency",
                    "split_condition": 1.13636363,
                    "yes": 51,
                    "no": 52,
                    "missing": 52,
                    "children": [
                      {
                        "nodeid": 51,
                        "leaf": 3.9679997
                      },
                      {
                        "nodeid": 52,
                        "leaf": 29.6910763
                      }
                    ]
                  },
                  {
                    "nodeid": 30,
                    "depth": 4,
                    "split": "month_cos",
                    "split_condition": 6.12323426e-17,
                    "yes": 53,
                    "no": 54,
                    "missing": 54,
                    "children": [
                      {
                        "nodeid": 53,
                        "leaf": -0.0299999993
                      },
                      {
                        "nodeid": 54,
                        "leaf": 3.12475681
                      }
                    ]
                  }
                ]
              }
            ]
          }
        ]
      }
    ]
  },
  {
    "nodeid": 0,
    "depth": 0,
    "split": "item_id_encoded",
    "split_condition": 321.909088,
    "yes": 1,
    "no": 2,
    "missing": 2,
    "children": [
      {
        "nodeid": 1,
        "depth": 1,
        "split": "monthly_avg",
        "split_condition": 7.090909,
        "yes": 3,
        "no": 4,
        "missing": 4,
        "children": [
          {
            "nodeid": 3,
            "depth": 2,
            "split": "item_id_encoded",
            "split_condition": 33.7142868,
            "yes": 7,
            "no": 8,
            "missing": 8,
            "children": [
              {
                "nodeid": 7,
                "depth": 3,
                "split": "item_id_encoded",
                "split_condition": 21.2999992,
                "yes": 15,
                "no": 16,
                "missing": 16,
                "children": [
                  {
                    "nodeid": 15,
                    "depth": 4,
                    "split": "last30",
                    "split_condition": 6,
                    "yes": 31,
                    "no": 32,
                    "missing": 32,
                    "children": [
                      {
                        "nodeid": 31,
                        "leaf": 0.000287228118
                      },
                      {
                        "nodeid": 32,
                        "leaf": 0.0718425512
                      }
                    ]
                  },
                  {
                    "nodeid": 16,
                    "depth": 4,
                    "split": "frequency",
                    "split_condition": 0.425531924,
                    "yes": 33,
                    "no": 34,
                    "missing": 34,
                    "children": [
                      {
                        "nodeid": 33,
                        "leaf": 0.00508574536
                      },
                      {
                        "nodeid": 34,
                        "leaf": 0.101331949
                      }
                    ]
                  }
                ]
              },
              {
                "nodeid": 8,
                "depth": 3,
                "split": "item_id_encoded",
                "split_condition": 231.818176,
                "yes": 17,
                "no": 18,
                "missing": 18,
                "children": [
                  {
                    "nodeid": 17,
                    "depth": 4,
                    "split": "last30",
                    "split_condition": 7.5,
                    "yes": 35,
                    "no": 36,
                    "missing": 36,
                    "children": [
                      {
                        "nodeid": 35,
                        "leaf": 0.212194622
                      },
                      {
                        "nodeid": 36,
                        "leaf": 0.380300134
                      }
                    ]
                  },
                  {
                    "nodeid": 18,
                    "depth": 4,
                    "split": "route_id_encoded",
                    "split_condition": 1299.30005,
                    "yes": 37,
                    "no": 38,
                    "missing": 38,
                    "children": [
                      {
                        "nodeid": 37,
                        "leaf": 0.830355763
                      },
                      {
                        "nodeid": 38,
                        "leaf": 3.1888411
                      }
                    ]
                  }
                ]
              }
            ]
          },
          {
            "nodeid": 4,
            "depth": 2,
            "split": "monthly_avg",
            "split_condition": 44,
            "yes": 9,
            "no": 10,
            "missing": 10,
            "children": [
              {
                "nodeid": 9,
                "depth": 3,
                "split": "item_id_encoded",
                "split_condition": 159,
                "yes": 19,
                "no": 20,
                "missing": 20,
                "children": [
                  {
                    "nodeid": 19,
                    "depth": 4,
                    "split": "route_avg_all",
                    "split_condition": 14.6621189,
                    "yes": 39,
                    "no": 40,
                    "missing": 40,
                    "children": [
                      {
                        "nodeid": 39,
                        "leaf": 0.956098914
                      },
                      {
                        "nodeid": 40,
                        "leaf": 0.431839705
                      }
                    ]
                  },
                  {
                    "nodeid": 20,
                    "depth": 4,
                    "split": "frequency",
                    "split_condition": 0.425531924,
                    "yes": 41,
                    "no": 42,
                    "missing": 42,
                    "children": [
                      {
                        "nodeid": 41,
                        "leaf": 2.04211116
                      },
                      {
                        "nodeid": 42,
                        "leaf": 0.831235111
                      }
                    ]
                  }
                ]
              },
              {
                "nodeid": 10,
                "depth": 3,
                "split": "seasonal_index",
                "split_condition": 0.413793117,
                "yes": 21,
                "no": 22,
                "missing": 22,
                "children": [
                  {
                    "nodeid": 21,
                    "depth": 4,
                    "split": "route_id_encoded",
                    "split_condition": 1613.22217,
                    "yes": 43,
                    "no": 44,
                    "missing": 44,
                    "children": [
                      {
                        "nodeid": 43,
                        "leaf": -0.103610687
                      },
                      {
                        "nodeid": 44,
                        "leaf": 3.34433842
                      }
                    ]
                  },
                  {
                    "nodeid": 22,
                    "depth": 4,
                    "split": "frequency",
                    "split_condition": 1.22324157,
                    "yes": 45,
                    "no": 46,
                    "missing": 46,
                    "children": [
                      {
                        "nodeid": 45,
                        "leaf": 15.5753174
                      },
                      {
                        "nodeid": 46,
                        "leaf": 5.2519989
                      }
                    ]
                  }
                ]
              }
            ]
          }
        ]
      },
      {
        "nodeid": 2,
        "depth": 1,
        "split": "seasonal_index",
        "split_condition": 0.144675925,
        "yes": 5,
        "no": 6,
        "missing": 6,
        "children": [
          {
            "nodeid": 5,
            "depth": 2,
            "split": "route_item_avg",
            "split_condition": 100,
            "yes": 11,
            "no": 12,
            "missing": 12,
            "children": [
              {
                "nodeid": 11,
                "depth": 3,
                "split": "frequency",
                "split_condition": 1.27659571,
                "yes": 23,
                "no": 24,
                "missing": 24,
                "children": [
                  {
                    "nodeid": 23,
                    "depth": 4,
                    "split": "route_avg_all",
                    "split_condition": 22.0329266,
                    "yes": 47,
                    "no": 48,
                    "missing": 48,
                    "children": [
                      {
                        "nodeid": 47,
                        "leaf": 1.02611613
                      },
                      {
                        "nodeid": 48,
                        "leaf": 2.98654103
                      }
                    ]
                  },
                  {
                    "nodeid": 24,
                    "depth": 4,
                    "split": "last90",
                    "split_condition": 15.454545,
                    "yes": 49,
                    "no": 50,
                    "missing": 50,
                    "children": [
                      {
                        "nodeid": 49,
                        "leaf": 5.40672731
                      },
                      {
                        "nodeid": 50,
                        "leaf": 2.21337104
                      }
                    ]
                  }
                ]
              },
              {
                "nodeid": 12,
                "depth": 3,
                "split": "frequency",
                "split_condition": 0.689655185,
                "yes": 25,
                "no": 26,
                "missing": 26,
                "children": [
                  {
                    "nodeid": 25,
                    "depth": 4,
                    "split": "route_avg_all",
                    "split_condition": 15.0329456,
                    "yes": 51,
                    "no": 52,
                    "missing": 52,
                    "children": [
                      {
                        "nodeid": 51,
                        "leaf": 4.94161892
                      },
                      {
                        "nodeid": 52,
                        "leaf": 1.25041103
                      }
                    ]
                  },
                  {
                    "nodeid": 26,
                    "depth": 4,
                    "split": "route_id_encoded",
                    "split_condition": 1268,
                    "yes": 53,
                    "no": 54,
                    "missing": 54,
                    "children": [
                      {
                        "nodeid": 53,
                        "leaf": 5.14686918
                      },
                      {
                        "nodeid": 54,
                        "leaf": 2.09783721
                      }
                    ]
                  }
                ]
              }
            ]
          },
          {
            "nodeid": 6,
            "depth": 2,
            "split": "last90",
            "split_condition": 0.899999976,
            "yes": 13,
            "no": 14,
            "missing": 14,
            "children": [
              {
                "nodeid": 13,
                "depth": 3,
                "split": "item_id_encoded",
                "split_condition": 351.625,
                "yes": 27,
                "no": 28,
                "missing": 28,
                "children": [
                  {
                    "nodeid": 27,
                    "leaf": -0.0658147261
                  },
                  {
                    "nodeid": 28,
                    "leaf": 28.4715576
                  }
                ]
              },
              {
                "nodeid": 14,
                "depth": 3,
                "split": "last7",
                "split_condition": 101,
                "yes": 29,
                "no": 30,
                "missing": 30,
                "children": [
                  {
                    "nodeid": 29,
                    "depth": 4,
                    "split": "frequency",
                    "split_condition": 1.27659571,
                    "yes": 55,
                    "no": 56,
                    "missing": 56,
                    "children": [
                      {
                        "nodeid": 55,
                        "leaf": -0.376778722
                      },
                      {
                        "nodeid": 56,
                        "leaf": 7.51718855
                      }
                    ]
                  },
                  {
                    "nodeid": 30,
                    "depth": 4,
                    "split": "seasonal_index",
                    "split_condition": 0.199192464,
                    "yes": 57,
                    "no": 58,
                    "missing": 58,
                    "children": [
                      {
                        "nodeid": 57,
                        "leaf": 28.5957413
                      },
                      {
                        "nodeid": 58,
                        "leaf": -0.216566727
                      }
                    ]
                  }
                ]
              }
            ]
          }
        ]
      }
    ]
  },
  {
    "nodeid": 0,
    "depth": 0,
    "split": "item_id_encoded",
    "split_condition": 351.625,
    "yes": 1,
    "no": 2,
    "missing": 2,
    "children": [
      {
        "nodeid": 1,
        "depth": 1,
        "split": "item_id_encoded",
        "split_condition": 159,
        "yes": 3,
        "no": 4,
        "missing": 4,
        "children": [
          {
            "nodeid": 3,
            "depth": 2,
            "split": "item_id_encoded",
            "split_condition": 51.625,
            "yes": 7,
            "no": 8,
            "missing": 8,
            "children": [
              {
                "nodeid": 7,
                "depth": 3,
                "split": "route_item_avg",
                "split_condition": 17,
                "yes": 15,
                "no": 16,
                "missing": 16,
                "children": [
                  {
                    "nodeid": 15,
                    "depth": 4,
                    "split": "item_id_encoded",
                    "split_condition": 21.2999992,
                    "yes": 29,
                    "no": 30,
                    "missing": 30,
                    "children": [
                      {
                        "nodeid": 29,
                        "leaf": 0.00506332098
                      },
                      {
                        "nodeid": 30,
                        "leaf": 0.0913955346
                      }
                    ]
                  },
                  {
                    "nodeid": 16,
                    "depth": 4,
                    "split": "route_avg_all",
                    "split_condition": 14.9250917,
                    "yes": 31,
                    "no": 32,
                    "missing": 32,
                    "children": [
                      {
                        "nodeid": 31,
                        "leaf": 1.33986902
                      },
                      {
                        "nodeid": 32,
                        "leaf": 0.20996581
                      }
                    ]
                  }
                ]
              },
              {
                "nodeid": 8,
                "depth": 3,
                "split": "route_item_avg",
                "split_condition": 130,
                "yes": 17,
                "no": 18,
                "missing": 18,
                "children": [
                  {
                    "nodeid": 17,
                    "depth": 4,
                    "split": "month_cos",
                    "split_condition": 6.12323426e-17,
                    "yes": 33,
                    "no": 34,
                    "missing": 34,
                    "children": [
                      {
                        "nodeid": 33,
                        "leaf": 0.18636696
                      },
                      {
                        "nodeid": 34,
                        "leaf": 0.446676105
                      }
                    ]
                  },
                  {
                    "nodeid": 18,
                    "depth": 4,
                    "split": "item_id_encoded",
                    "split_condition": 56.363636,
                    "yes": 35,
                    "no": 36,
                    "missing": 36,
                    "children": [
                      {
                        "nodeid": 35,
                        "leaf": -0.0481712818
                      },
                      {
                        "nodeid": 36,
                        "leaf": 8.93516254
                      }
                    ]
                  }
                ]
              }
            ]
          },
          {
            "nodeid": 4,
            "depth": 2,
            "split": "seasonal_index",
            "split_condition": 0.0759493634,
            "yes": 9,
            "no": 10,
            "missing": 10,
            "children": [
              {
                "nodeid": 9,
                "depth": 3,
                "split": "month_cos",
                "split_condition": 0.866025388,
                "yes": 19,
                "no": 20,
                "missing": 20,
                "children": [
                  {
                    "nodeid": 19,
                    "depth": 4,
                    "split": "item_id_encoded",
                    "split_condition": 162.428574,
                    "yes": 37,
                    "no": 38,
                    "missing": 38,
                    "children": [
                      {
                        "nodeid": 37,
                        "leaf": 1.32143843
                      },
                      {
                        "nodeid": 38,
                        "leaf": 0.479653358
                      }
                    ]
                  },
                  {
                    "nodeid": 20,
                    "depth": 4,
                    "split": "route_id_encoded",
                    "split_condition": 659.799988,
                    "yes": 39,
                    "no": 40,
                    "missing": 40,
                    "children": [
                      {
                        "nodeid": 39,
                        "leaf": 0.510186315
                      },
                      {
                        "nodeid": 40,
                        "leaf": 1.93136287
                      }
                    ]
                  }
                ]
              },
              {
                "nodeid": 10,
                "depth": 3,
                "split": "frequency",
                "split_condition": 0.425531924,
                "yes": 21,
                "no": 22,
                "missing": 22,
                "children": [
                  {
                    "nodeid": 21,
                    "depth": 4,
                    "split": "route_id_encoded",
                    "split_condition": 1016.90912,
                    "yes": 41,
                    "no": 42,
                    "missing": 42,
                    "children": [
                      {
                        "nodeid": 41,
                        "leaf": -0.217912093
                      },
                      {
                        "nodeid": 42,
                        "leaf": 13.1937885
                      }
                    ]
                  },
                  {
                    "nodeid": 22,
                    "depth": 4,
                    "split": "route_item_avg",
                    "split_condition": 60,
                    "yes": 43,
                    "no": 44,
                    "missing": 44,
                    "children": [
                      {
                        "nodeid": 43,
                        "leaf": 1.35151851
                      },
                      {
                        "nodeid": 44,
                        "leaf": 0.471691281
                      }
                    ]
                  }
                ]
              }
            ]
          }
        ]
      },
      {
        "nodeid": 2,
        "depth": 1,
        "split": "seasonal_index",
        "split_condition": 0.117408909,
        "yes": 5,
        "no": 6,
        "missing": 6,
        "children": [
          {
            "nodeid": 5,
            "depth": 2,
            "split": "item_id_encoded",
            "split_condition": 850,
            "yes": 11,
            "no": 12,
            "missing": 12,
            "children": [
              {
                "nodeid": 11,
                "depth": 3,
                "split": "month_cos",
                "split_condition": 6.12323426e-17,
                "yes": 23,
                "no": 24,
                "missing": 24,
                "children": [
                  {
                    "nodeid": 23,
                    "depth": 4,
                    "split": "item_id_encoded",
                    "split_condition": 660.5,
                    "yes": 45,
                    "no": 46,
                    "missing": 46,
                    "children": [
                      {
                        "nodeid": 45,
                        "leaf": 0.350605547
                      },
                      {
                        "nodeid": 46,
                        "leaf": 1.69421351
                      }
                    ]
                  },
                  {
                    "nodeid": 24,
                    "depth": 4,
                    "split": "route_id_encoded",
                    "split_condition": 1126.66663,
                    "yes": 47,
                    "no": 48,
                    "missing": 48,
                    "children": [
                      {
                        "nodeid": 47,
                        "leaf": 2.30924106
                      },
                      {
                        "nodeid": 48,
                        "leaf": 4.3604846
                      }
                    ]
                  }
                ]
              },
              {
                "nodeid": 12,
                "depth": 3,
                "split": "growth_rate",
                "split_condition": 3.125,
                "yes": 25,
                "no": 26,
                "missing": 26,
                "children": [
                  {
                    "nodeid": 25,
                    "depth": 4,
                    "split": "route_id_encoded",
                    "split_condition": 64.5,
                    "yes": 49,
                    "no": 50,
                    "missing": 50,
                    "children": [
                      {
                        "nodeid": 49,
                        "leaf": 19.1397552
                      },
                      {
                        "nodeid": 50,
                        "leaf": 3.02173162
                      }
                    ]
                  },
                  {
                    "nodeid": 26,
                    "depth": 4,
                    "split": "last90",
                    "split_condition": 487.804871,
                    "yes": 51,
                    "no": 52,
                    "missing": 52,
                    "children": [
                      {
                        "nodeid": 51,
                        "leaf": 26.8336811
                      },
                      {
                        "nodeid": 52,
                        "leaf": 0.225477993
                      }
                    ]
                  }
                ]
              }
            ]
          },
          {
            "nodeid": 6,
            "depth": 2,
            "split": "last90",
            "split_condition": 0.899999976,
            "yes": 13,
            "no": 14,
            "missing": 14,
            "children": [
              {
                "nodeid": 13,
                "leaf": 33.9611168
              },
              {
                "nodeid": 14,
                "depth": 3,
                "split": "growth_rate",
                "split_condition": 283.333344,
                "yes": 27,
                "no": 28,
                "missing": 28,
                "children": [
                  {
                    "nodeid": 27,
                    "depth": 4,
                    "split": "route_avg_all",
                    "split_condition": 19.5563126,
                    "yes": 53,
                    "no": 54,
                    "missing": 54,
                    "children": [
                      {
                        "nodeid": 53,
                        "leaf": 5.44536591
                      },
                      {
                        "nodeid": 54,
                        "leaf": -0.244923621
                      }
                    ]
                  },
                  {
                    "nodeid": 28,
                    "depth": 4,
                    "split": "item_id_encoded",
                    "split_condition": 580.200012,
                    "yes": 55,
                    "no": 56,
                    "missing": 56,
                    "children": [
                      {
                        "nodeid": 55,
                        "leaf": 22.7111778
                      },
                      {
                        "nodeid": 56,
                        "leaf": 3.39868045
                      }
                    ]
                  }
                ]
              }
            ]
          }
        ]
      }
    ]
  },
  {
    "nodeid": 0,
    "depth": 0,
    "split": "item_id_encoded",
    "split_condition": 321.909088,
    "yes": 1,
    "no": 2,
    "missing": 2,
    "children": [
      {
        "nodeid": 1,
        "depth": 1,
        "split": "item_id_encoded",
        "split_condition": 60,
        "yes": 3,
        "no": 4,
        "missing": 4,
        "children": [
          {
            "nodeid": 3,
            "depth": 2,
            "split": "monthly_avg",
            "split_condition": 2.22222233,
            "yes": 7,
            "no": 8,
            "missing": 8,
            "children": [
              {
                "nodeid": 7,
                "depth": 3,
                "split": "item_id_encoded",
                "split_condition": 21.5714283,
                "yes": 15,
                "no": 16,
                "missing": 16,
                "children": [
                  {
                    "nodeid": 15,
                    "depth": 4,
                    "split": "month_cos",
                    "split_condition": 1,
                    "yes": 31,
                    "no": 32,
                    "missing": 32,
                    "children": [
                      {
                        "nodeid": 31,
                        "leaf": -0.00369715528
                      },
                      {
                        "nodeid": 32,
                        "leaf": 0.0663526356
                      }
                    ]
                  },
                  {
                    "nodeid": 16,
                    "depth": 4,
                    "split": "month_cos",
                    "split_condition": 1,
                    "yes": 33,
                    "no": 34,
                    "missing": 34,
                    "children": [
                      {
                        "nodeid": 33,
                        "leaf": 0.0537053272
                      },
                      {
                        "nodeid": 34,
                        "leaf": 0.257369041
                      }
                    ]
                  }
                ]
              },
              {
                "nodeid": 8,
                "depth": 3,
                "split": "days_since_last_sale",
                "split_condition": 2,
                "yes": 17,
                "no": 18,
                "missing": 18,
                "children": [
                  {
                    "nodeid": 17,
                    "depth": 4,
                    "split": "item_id_encoded",
                    "split_condition": 51.625,
                    "yes": 35,
                    "no": 36,
                    "missing": 36,
                    "children": [
                      {
                        "nodeid": 35,
                        "leaf": 0.560137868
                      },
                      {
                        "nodeid": 36,
                        "leaf": 3.4055829
                      }
                    ]
                  },
                  {
                    "nodeid": 18,
                    "depth": 4,
                    "split": "month_cos",
                    "split_condition": 6.12323426e-17,
                    "yes": 37,
                    "no": 38,
                    "missing": 38,
                    "children": [
                      {
                        "nodeid": 37,
                        "leaf": 0.0640735328
                      },
                      {
                        "nodeid": 38,
                        "leaf": 0.209683776
                      }
                    ]
                  }
                ]
              }
            ]
          },
          {
            "nodeid": 4,
            "depth": 2,
            "split": "seasonal_index",
            "split_condition": 0.5,
            "yes": 9,
            "no": 10,
            "missing": 10,
            "children": [
              {
                "nodeid": 9,
                "depth": 3,
                "split": "item_id_encoded",
                "split_condition": 159,
                "yes": 19,
                "no": 20,
                "missing": 20,
                "children": [
                  {
                    "nodeid": 19,
                    "depth": 4,
                    "split": "month_cos",
                    "split_condition": 6.12323426e-17,
                    "yes": 39,
                    "no": 40,
                    "missing": 40,
                    "children": [
                      {
                        "nodeid": 39,
                        "leaf": 0.188483775
                      },
                      {
                        "nodeid": 40,
                        "leaf": 0.439453691
                      }
                    ]
                  },
                  {
                    "nodeid": 20,
                    "depth": 4,
                    "split": "monthly_avg",
                    "split_condition": 28.2000008,
                    "yes": 41,
                    "no": 42,
                    "missing": 42,
                    "children": [
                      {
                        "nodeid": 41,
                        "leaf": 0.608106196
                      },
                      {
                        "nodeid": 42,
                        "leaf": 1.47698951
                      }
                    ]
                  }
                ]
              },
              {
                "nodeid": 10,
                "depth": 3,
                "split": "route_avg_all",
                "split_condition": 15.5662031,
                "yes": 21,
                "no": 22,
                "missing": 22,
                "children": [
                  {
                    "nodeid": 21,
                    "depth": 4,
                    "split": "item_id_encoded",
                    "split_condition": 109.400002,
                    "yes": 43,
                    "no": 44,
                    "missing": 44,
                    "children": [
                      {
                        "nodeid": 43,
                        "leaf": -0.0973564386
                      },
                      {
                        "nodeid": 44,
                        "leaf": -0.350594193
                      }
                    ]
                  },
                  {
                    "nodeid": 22,
                    "depth": 4,
                    "split": "route_id_encoded",
                    "split_condition": 2025.90002,
                    "yes": 45,
                    "no": 46,
                    "missing": 46,
                    "children": [
                      {
                        "nodeid": 45,
                        "leaf": 15.354764
                      },
                      {
                        "nodeid": 46,
                        "leaf": 3.1953423
                      }
                    ]
                  }
                ]
              }
            ]
          }
        ]
      },
      {
        "nodeid": 2,
        "depth": 1,
        "split": "month_cos",
        "split_condition": 6.12323426e-17,
        "yes": 5,
        "no": 6,
        "missing": 6,
        "children": [
          {
            "nodeid": 5,
            "depth": 2,
            "split": "route_id_encoded",
            "split_condition": 64.5,
            "yes": 11,
            "no": 12,
            "missing": 12,
            "children": [
              {
                "nodeid": 11,
                "depth": 3,
                "split": "item_id_encoded",
                "split_condition": 778.428589,
                "yes": 23,
                "no": 24,
                "missing": 24,
                "children": [
                  {
                    "nodeid": 23,
                    "leaf": -0.128013194
                  },
                  {
                    "nodeid": 24,
                    "leaf": 18.3741646
                  }
                ]
              },
              {
                "nodeid": 12,
                "depth": 3,
                "split": "seasonal_index",
                "split_condition": 0.141509429,
                "yes": 25,
                "no": 26,
                "missing": 26,
                "children": [
                  {
                    "nodeid": 25,
                    "depth": 4,
                    "split": "item_id_encoded",
                    "split_condition": 660.5,
                    "yes": 47,
                    "no": 48,
                    "missing": 48,
                    "children": [
                      {
                        "nodeid": 47,
                        "leaf": 0.463982791
                      },
                      {
                        "nodeid": 48,
                        "leaf": 1.59370279
                      }
                    ]
                  },
                  {
                    "nodeid": 26,
                    "depth": 4,
                    "split": "monthly_avg",
                    "split_condition": 62.5,
                    "yes": 49,
                    "no": 50,
                    "missing": 50,
                    "children": [
                      {
                        "nodeid": 49,
                        "leaf": 17.8759079
                      },
                      {
                        "nodeid": 50,
                        "leaf": 3.58227015
                      }
                    ]
                  }
                ]
              }
            ]
          },
          {
            "nodeid": 6,
            "depth": 2,
            "split": "route_item_avg",
            "split_condition": 100,
            "yes": 13,
            "no": 14,
            "missing": 14,
            "children": [
              {
                "nodeid": 13,
                "depth": 3,
                "split": "seasonal_index",
                "split_condition": 0.0933333337,
                "yes": 27,
                "no": 28,
                "missing": 28,
                "children": [
                  {
                    "nodeid": 27,
                    "depth": 4,
                    "split": "route_item_avg",
                    "split_condition": 60,
                    "yes": 51,
                    "no": 52,
                    "missing": 52,
                    "children": [
                      {
                        "nodeid": 51,
                        "leaf": 2.05924392
                      },
                      {
                        "nodeid": 52,
                        "leaf": 0.431956887
                      }
                    ]
                  },
                  {
                    "nodeid": 28,
                    "depth": 4,
                    "split": "route_item_avg",
                    "split_condition": 39.5,
                    "yes": 53,
                    "no": 54,
                    "missing": 54,
                    "children": [
                      {
                        "nodeid": 53,
                        "leaf": 7.11297274
                      },
                      {
                        "nodeid": 54,
                        "leaf": 3.03808331
                      }
                    ]
                  }
                ]
              },
              {
                "nodeid": 14,
                "depth": 3,
                "split": "month_cos",
                "split_condition": 0.5,
                "yes": 29,
                "no": 30,
                "missing": 30,
                "children": [
                  {
                    "nodeid": 29,
                    "depth": 4,
                    "split": "monthly_avg",
                    "split_condition": 75,
                    "yes": 55,
                    "no": 56,
                    "missing": 56,
                    "children": [
                      {
                        "nodeid": 55,
                        "leaf": 7.09260845
                      },
                      {
                        "nodeid": 56,
                        "leaf": 21.947506
                      }
                    ]
                  },
                  {
                    "nodeid": 30,
                    "depth": 4,
                    "split": "item_id_encoded",
                    "split_condition": 762.111084,
                    "yes": 57,
                    "no": 58,
                    "missing": 58,
                    "children": [
                      {
                        "nodeid": 57,
                        "leaf": 1.9054178
                      },
                      {
                        "nodeid": 58,
                        "leaf": 5.72438335
                      }
                    ]
                  }
                ]
              }
            ]
          }
        ]
      }
    ]
  },
  {
    "nodeid": 0,
    "depth": 0,
    "split": "overall_avg_monthly",
    "split_condition": 485.714294,
    "yes": 1,
    "no": 2,
    "missing": 2,
    "children": [
      {
        "nodeid": 1,
        "depth": 1,
        "split": "monthly_avg",
        "split_condition": 28.2000008,
        "yes": 3,
        "no": 4,
        "missing": 4,
        "children": [
          {
            "nodeid": 3,
            "depth": 2,
            "split": "overall_avg_monthly",
            "split_condition": 60,
            "yes": 7,
            "no": 8,
            "missing": 8,
            "children": [
              {
                "nodeid": 7,
                "depth": 3,
                "split": "overall_avg_monthly",
                "split_condition": 32.7999992,
                "yes": 15,
                "no": 16,
                "missing": 16,
                "children": [
                  {
                    "nodeid": 15,
                    "depth": 4,
                    "split": "month_cos",
                    "split_condition": 0.5,
                    "yes": 31,
                    "no": 32,
                    "missing": 32,
                    "children": [
                      {
                        "nodeid": 31,
                        "leaf": 0.000787130557
                      },
                      {
                        "nodeid": 32,
                        "leaf": 0.0594908521
                      }
                    ]
                  },
                  {
                    "nodeid": 16,
                    "depth": 4,
                    "split": "month_cos",
                    "split_condition": 6.12323426e-17,
                    "yes": 33,
                    "no": 34,
                    "missing": 34,
                    "children": [
                      {
                        "nodeid": 33,
                        "leaf": 0.0540102795
                      },
                      {
                        "nodeid": 34,
                        "leaf": 0.207289562
                      }
                    ]
                  }
                ]
              },
              {
                "nodeid": 8,
                "depth": 3,
                "split": "month_cos",
                "split_condition": -0.866025388,
                "yes": 17,
                "no": 18,
                "missing": 18,
                "children": [
                  {
                    "nodeid": 17,
                    "depth": 4,
                    "split": "customer_coverage",
                    "split_condition": 4,
                    "yes": 35,
                    "no": 36,
                    "missing": 36,
                    "children": [
                      {
                        "nodeid": 35,
                        "leaf": -0.0298847947
                      },
                      {
                        "nodeid": 36,
                        "leaf": 0.250837713
                      }
                    ]
                  },
                  {
                    "nodeid": 18,
                    "depth": 4,
                    "split": "overall_avg_monthly",
                    "split_condition": 159,
                    "yes": 37,
                    "no": 38,
                    "missing": 38,
                    "children": [
                      {
                        "nodeid": 37,
                        "leaf": 0.324080735
                      },
                      {
                        "nodeid": 38,
                        "leaf": 0.656652153
                      }
                    ]
                  }
                ]
              }
            ]
          },
          {
            "nodeid": 4,
            "depth": 2,
            "split": "seasonal_index",
            "split_condition": 0.5,
            "yes": 9,
            "no": 10,
            "missing": 10,
            "children": [
              {
                "nodeid": 9,
                "depth": 3,
                "split": "frequency",
                "split_condition": 0.568181813,
                "yes": 19,
                "no": 20,
                "missing": 20,
                "children": [
                  {
                    "nodeid": 19,
                    "depth": 4,
                    "split": "route_avg_all",
                    "split_condition": 15.8392859,
                    "yes": 39,
                    "no": 40,
                    "missing": 40,
                    "children": [
                      {
                        "nodeid": 39,
                        "leaf": 11.8162575
                      },
                      {
                        "nodeid": 40,
                        "leaf": 2.06812716
                      }
                    ]
                  },
                  {
                    "nodeid": 20,
                    "depth": 4,
                    "split": "last30",
                    "split_condition": 600,
                    "yes": 41,
                    "no": 42,
                    "missing": 42,
                    "children": [
                      {
                        "nodeid": 41,
                        "leaf": 0.926673651
                      },
                      {
                        "nodeid": 42,
                        "leaf": 7.13847399
                      }
                    ]
                  }
                ]
              },
              {
                "nodeid": 10,
                "depth": 3,
                "split": "monthly_avg",
                "split_condition": 36,
                "yes": 21,
                "no": 22,
                "missing": 22,
                "children": [
                  {
                    "nodeid": 21,
                    "leaf": -0.0946023837
                  },
                  {
                    "nodeid": 22,
                    "depth": 4,
                    "split": "route_avg_all",
                    "split_condition": 18.4029579,
                    "yes": 43,
                    "no": 44,
                    "missing": 44,
                    "children": [
                      {
                        "nodeid": 43,
                        "leaf": 14.4334784
                      },
                      {
                        "nodeid": 44,
                        "leaf": 3.00362206
                      }
                    ]
                  }
                ]
              }
            ]
          }
        ]
      },
      {
        "nodeid": 2,
        "depth": 1,
        "split": "month_cos",
        "split_condition": -0.866025388,
        "yes": 5,
        "no": 6,
        "missing": 6,
        "children": [
          {
            "nodeid": 5,
            "depth": 2,
            "split": "customer_coverage",
            "split_condition": 11,
            "yes": 11,
            "no": 12,
            "missing": 12,
            "children": [
              {
                "nodeid": 11,
                "depth": 3,
                "split": "customer_coverage",
                "split_condition": 3,
                "yes": 23,
                "no": 24,
                "missing": 24,
                "children": [
                  {
                    "nodeid": 23,
                    "depth": 4,
                    "split": "seasonal_index",
                    "split_condition": 0.0102040814,
                    "yes": 45,
                    "no": 46,
                    "missing": 46,
                    "children": [
                      {
                        "nodeid": 45,
                        "leaf": 0.436284244
                      },
                      {
                        "nodeid": 46,
                        "leaf": -0.5824458
                      }
                    ]
                  },
                  {
                    "nodeid": 24,
                    "depth": 4,
                    "split": "route_avg_all",
                    "split_condition": 16.6073494,
                    "yes": 47,
                    "no": 48,
                    "missing": 48,
                    "children": [
                      {
                        "nodeid": 47,
                        "leaf": 2.06659317
                      },
                      {
                        "nodeid": 48,
                        "leaf": -0.0856041312
                      }
                    ]
                  }
                ]
              },
              {
                "nodeid": 12,
                "depth": 3,
                "split": "last7",
                "split_condition": 0.333333343,
                "yes": 25,
                "no": 26,
                "missing": 26,
                "children": [
                  {
                    "nodeid": 25,
                    "depth": 4,
                    "split": "route_avg_all",
                    "split_condition": 20.000555,
                    "yes": 49,
                    "no": 50,
                    "missing": 50,
                    "children": [
                      {
                        "nodeid": 49,
                        "leaf": 5.5810833
                      },
                      {
                        "nodeid": 50,
                        "leaf": -0.375665426
                      }
                    ]
                  },
                  {
                    "nodeid": 26,
                    "leaf": -0.368979216
                  }
                ]
              }
            ]
          },
          {
            "nodeid": 6,
            "depth": 2,
            "split": "last90",
            "split_condition": 100,
            "yes": 13,
            "no": 14,
            "missing": 14,
            "children": [
              {
                "nodeid": 13,
                "depth": 3,
                "split": "monthly_avg",
                "split_condition": 93.3333359,
                "yes": 27,
                "no": 28,
                "missing": 28,
                "children": [
                  {
                    "nodeid": 27,
                    "depth": 4,
                    "split": "route_avg_all",
                    "split_condition": 13.1498966,
                    "yes": 51,
                    "no": 52,
                    "missing": 52,
                    "children": [
                      {
                        "nodeid": 51,
                        "leaf": -0.597554445
                      },
                      {
                        "nodeid": 52,
                        "leaf": 1.44388378
                      }
                    ]
                  },
                  {
                    "nodeid": 28,
                    "leaf": 16.2825584
                  }
                ]
              },
              {
                "nodeid": 14,
                "depth": 3,
                "split": "route_avg_all",
                "split_condition": 15.116374,
                "yes": 29,
                "no": 30,
                "missing": 30,
                "children": [
                  {
                    "nodeid": 29,
                    "depth": 4,
                    "split": "days_since_last_sale",
                    "split_condition": 9,
                    "yes": 53,
                    "no": 54,
                    "missing": 54,
                    "children": [
                      {
                        "nodeid": 53,
                        "leaf": 11.9948215
                      },
                      {
                        "nodeid": 54,
                        "leaf": 3.72787046
                      }
                    ]
                  },
                  {
                    "nodeid": 30,
                    "depth": 4,
                    "split": "route_avg_all",
                    "split_condition": 23.2579403,
                    "yes": 55,
                    "no": 56,
                    "missing": 56,
                    "children": [
                      {
                        "nodeid": 55,
                        "leaf": 2.67591763
                      },
                      {
                        "nodeid": 56,
                        "leaf": 7.0167923
                      }
                    ]
                  }
                ]
              }
            ]
          }
        ]
      }
    ]
  },
  {
    "nodeid": 0,
    "depth": 0,
    "split": "item_id_encoded",
    "split_condition": 485.714294,
    "yes": 1,
    "no": 2,
    "missing": 2,
    "children": [
      {
        "nodeid": 1,
        "depth": 1,
        "split": "monthly_avg",
        "split_condition": 44,
        "yes": 3,
        "no": 4,
        "missing": 4,
        "children": [
          {
            "nodeid": 3,
            "depth": 2,
            "split": "item_id_encoded",
            "split_condition": 159,
            "yes": 7,
            "no": 8,
            "missing": 8,
            "children": [
              {
                "nodeid": 7,
                "depth": 3,
                "split": "item_id_encoded",
                "split_condition": 42.7142868,
                "yes": 15,
                "no": 16,
                "missing": 16,
                "children": [
                  {
                    "nodeid": 15,
                    "depth": 4,
                    "split": "monthly_avg",
                    "split_condition": 1.71428573,
                    "yes": 31,
                    "no": 32,
                    "missing": 32,
                    "children": [
                      {
                        "nodeid": 31,
                        "leaf": 0.00665676268
                      },
                      {
                        "nodeid": 32,
                        "leaf": 0.0874276236
                      }
                    ]
                  },
                  {
                    "nodeid": 16,
                    "depth": 4,
                    "split": "month_cos",
                    "split_condition": 6.12323426e-17,
                    "yes": 33,
                    "no": 34,
                    "missing": 34,
                    "children": [
                      {
                        "nodeid": 33,
                        "leaf": 0.129598394
                      },
                      {
                        "nodeid": 34,
                        "leaf": 0.324042499
                      }
                    ]
                  }
                ]
              },
              {
                "nodeid": 8,
                "depth": 3,
                "split": "month_sin",
                "split_condition": 1.22464685e-16,
                "yes": 17,
                "no": 18,
                "missing": 18,
                "children": [
                  {
                    "nodeid": 17,
                    "depth": 4,
                    "split": "monthly_avg",
                    "split_condition": 31.636364,
                    "yes": 35,
                    "no": 36,
                    "missing": 36,
                    "children": [
                      {
                        "nodeid": 35,
                        "leaf": 1.76522672
                      },
                      {
                        "nodeid": 36,
                        "leaf": -0.368979186
                      }
                    ]
                  },
                  {
                    "nodeid": 18,
                    "depth": 4,
                    "split": "route_id_encoded",
                    "split_condition": 265.200012,
                    "yes": 37,
                    "no": 38,
                    "missing": 38,
                    "children": [
                      {
                        "nodeid": 37,
                        "leaf": -0.313634247
                      },
                      {
                        "nodeid": 38,
                        "leaf": 0.533841312
                      }
                    ]
                  }
                ]
              }
            ]
          },
          {
            "nodeid": 4,
            "depth": 2,
            "split": "frequency",
            "split_condition": 0.917431176,
            "yes": 9,
            "no": 10,
            "missing": 10,
            "children": [
              {
                "nodeid": 9,
                "depth": 3,
                "split": "route_id_encoded",
                "split_condition": 1248.16663,
                "yes": 19,
                "no": 20,
                "missing": 20,
                "children": [
                  {
                    "nodeid": 19,
                    "depth": 4,
                    "split": "item_id_encoded",
                    "split_condition": 65.4444427,
                    "yes": 39,
                    "no": 40,
                    "missing": 40,
                    "children": [
                      {
                        "nodeid": 39,
                        "leaf": 7.38622665
                      },
                      {
                        "nodeid": 40,
                        "leaf": -0.937673092
                      }
                    ]
                  },
                  {
                    "nodeid": 20,
                    "depth": 4,
                    "split": "route_id_encoded",
                    "split_condition": 2292,
                    "yes": 41,
                    "no": 42,
                    "missing": 42,
                    "children": [
                      {
                        "nodeid": 41,
                        "leaf": 22.3435268
                      },
                      {
                        "nodeid": 42,
                        "leaf": -0.810919464
                      }
                    ]
                  }
                ]
              },
              {
                "nodeid": 10,
                "depth": 3,
                "split": "customer_coverage",
                "split_condition": 2,
                "yes": 21,
                "no": 22,
                "missing": 22,
                "children": [
                  {
                    "nodeid": 21,
                    "leaf": 11.9713898
                  },
                  {
                    "nodeid": 22,
                    "depth": 4,
                    "split": "monthly_avg",
                    "split_condition": 62.5,
                    "yes": 43,
                    "no": 44,
                    "missing": 44,
                    "children": [
                      {
                        "nodeid": 43,
                        "leaf": 2.45291877
                      },
                      {
                        "nodeid": 44,
                        "leaf": -0.987874031
                      }
                    ]
                  }
                ]
              }
            ]
          }
        ]
      },
      {
        "nodeid": 2,
        "depth": 1,
        "split": "last7",
        "split_condition": 165,
        "yes": 5,
        "no": 6,
        "missing": 6,
        "children": [
          {
            "nodeid": 5,
            "depth": 2,
            "split": "month_cos",
            "split_condition": -0.866025388,
            "yes": 11,
            "no": 12,
            "missing": 12,
            "children": [
              {
                "nodeid": 11,
                "depth": 3,
                "split": "customer_coverage",
                "split_condition": 5,
                "yes": 23,
                "no": 24,
                "missing": 24,
                "children": [
                  {
                    "nodeid": 23,
                    "depth": 4,
                    "split": "route_id_encoded",
                    "split_condition": 1782.69995,
                    "yes": 45,
                    "no": 46,
                    "missing": 46,
                    "children": [
                      {
                        "nodeid": 45,
                        "leaf": -0.130545124
                      },
                      {
                        "nodeid": 46,
                        "leaf": 3.62535667
                      }
                    ]
                  },
                  {
                    "nodeid": 24,
                    "depth": 4,
                    "split": "route_id_encoded",
                    "split_condition": 1039.16663,
                    "yes": 47,
                    "no": 48,
                    "missing": 48,
                    "children": [
                      {
                        "nodeid": 47,
                        "leaf": 6.07418871
                      },
                      {
                        "nodeid": 48,
                        "leaf": 1.105708
                      }
                    ]
                  }
                ]
              },
              {
                "nodeid": 12,
                "depth": 3,
                "split": "route_item_avg",
                "split_condition": 100,
                "yes": 25,
                "no": 26,
                "missing": 26,
                "children": [
                  {
                    "nodeid": 25,
                    "depth": 4,
                    "split": "route_id_encoded",
                    "split_condition": 64.5,
                    "yes": 49,
                    "no": 50,
                    "missing": 50,
                    "children": [
                      {
                        "nodeid": 49,
                        "leaf": 11.6005297
                      },
                      {
                        "nodeid": 50,
                        "leaf": 1.67256272
                      }
                    ]
                  },
                  {
                    "nodeid": 26,
                    "depth": 4,
                    "split": "month_sin",
                    "split_condition": 1,
                    "yes": 51,
                    "no": 52,
                    "missing": 52,
                    "children": [
                      {
                        "nodeid": 51,
                        "leaf": 2.63104939
                      },
                      {
                        "nodeid": 52,
                        "leaf": 7.96380663
                      }
                    ]
                  }
                ]
              }
            ]
          },
          {
            "nodeid": 6,
            "depth": 2,
            "split": "growth_rate",
            "split_condition": 3.125,
            "yes": 13,
            "no": 14,
            "missing": 14,
            "children": [
              {
                "nodeid": 13,
                "depth": 3,
                "split": "item_id_encoded",
                "split_condition": 660.5,
                "yes": 27,
                "no": 28,
                "missing": 28,
                "children": [
                  {
                    "nodeid": 27,
                    "depth": 4,
                    "split": "route_id_encoded",
                    "split_condition": 1841.72729,
                    "yes": 53,
                    "no": 54,
                    "missing": 54,
                    "children": [
                      {
                        "nodeid": 53,
                        "leaf": 7.65838766
                      },
                      {
                        "nodeid": 54,
                        "leaf": -0.525294244
                      }
                    ]
                  },
                  {
                    "nodeid": 28,
                    "depth": 4,
                    "split": "route_id_encoded",
                    "split_condition": 822.333313,
                    "yes": 55,
                    "no": 56,
                    "missing": 56,
                    "children": [
                      {
                        "nodeid": 55,
                        "leaf": 2.8906045
                      },
                      {
                        "nodeid": 56,
                        "leaf": -0.723069608
                      }
                    ]
                  }
                ]
              },
              {
                "nodeid": 14,
                "depth": 3,
                "split": "monthly_avg",
                "split_condition": 54.5714302,
                "yes": 29,
                "no": 30,
                "missing": 30,
                "children": [
                  {
                    "nodeid": 29,
                    "depth": 4,
                    "split": "item_id_encoded",
                    "split_condition": 699.166687,
                    "yes": 57,
                    "no": 58,
                    "missing": 58,
                    "children": [
                      {
                        "nodeid": 57,
                        "leaf": -0.362390906
                      },
                      {
                        "nodeid": 58,
                        "leaf": 1.99851716
                      }
                    ]
                  },
                  {
                    "nodeid": 30,
                    "leaf": 25.5154858
                  }
                ]
              }
            ]
          }
        ]
      }
    ]
  },
  {
    "nodeid": 0,
    "depth": 0,
    "split": "item_id_encoded",
    "split_condition": 260,
    "yes": 1,
    "no": 2,
    "missing": 2,
    "children": [
      {
        "nodeid": 1,
        "depth": 1,
        "split": "item_id_encoded",
        "split_condition": 60,
        "yes": 3,
        "no": 4,
        "missing": 4,
        "children": [
          {
            "nodeid": 3,
            "depth": 2,
            "split": "route_item_avg",
            "split_condition": 17,
            "yes": 7,
            "no": 8,
            "missing": 8,
            "children": [
              {
                "nodeid": 7,
                "depth": 3,
                "split": "month_cos",
                "split_condition": 6.12323426e-17,
                "yes": 15,
                "no": 16,
                "missing": 16,
                "children": [
                  {
                    "nodeid": 15,
                    "depth": 4,
                    "split": "days_since_last_sale",
                    "split_condition": 2,
                    "yes": 31,
                    "no": 32,
                    "missing": 32,
                    "children": [
                      {
                        "nodeid": 31,
                        "leaf": 0.406679004
                      },
                      {
                        "nodeid": 32,
                        "leaf": -0.00399839599
                      }
                    ]
                  },
                  {
                    "nodeid": 16,
                    "depth": 4,
                    "split": "item_id_encoded",
                    "split_condition": 23.5714283,
                    "yes": 33,
                    "no": 34,
                    "missing": 34,
                    "children": [
                      {
                        "nodeid": 33,
                        "leaf": 0.0257611368
                      },
                      {
                        "nodeid": 34,
                        "leaf": 0.126541778
                      }
                    ]
                  }
                ]
              },
              {
                "nodeid": 8,
                "depth": 3,
                "split": "route_avg_all",
                "split_condition": 14.9250917,
                "yes": 17,
                "no": 18,
                "missing": 18,
                "children": [
                  {
                    "nodeid": 17,
                    "depth": 4,
                    "split": "item_id_encoded",
                    "split_condition": 4,
                    "yes": 35,
                    "no": 36,
                    "missing": 36,
                    "children": [
                      {
                        "nodeid": 35,
                        "leaf": 5.17018366
                      },
                      {
                        "nodeid": 36,
                        "leaf": 0.522204518
                      }
                    ]
                  },
                  {
                    "nodeid": 18,
                    "depth": 4,
                    "split": "route_id_encoded",
                    "split_condition": 1569.33337,
                    "yes": 37,
                    "no": 38,
                    "missing": 38,
                    "children": [
                      {
                        "nodeid": 37,
                        "leaf": 0.100617699
                      },
                      {
                        "nodeid": 38,
                        "leaf": 0.560420692
                      }
                    ]
                  }
                ]
              }
            ]
          },
          {
            "nodeid": 4,
            "depth": 2,
            "split": "last30",
            "split_condition": 168,
            "yes": 9,
            "no": 10,
            "missing": 10,
            "children": [
              {
                "nodeid": 9,
                "depth": 3,
                "split": "last30",
                "split_condition": 13,
                "yes": 19,
                "no": 20,
                "missing": 20,
                "children": [
                  {
                    "nodeid": 19,
                    "depth": 4,
                    "split": "item_id_encoded",
                    "split_condition": 159,
                    "yes": 39,
                    "no": 40,
                    "missing": 40,
                    "children": [
                      {
                        "nodeid": 39,
                        "leaf": 0.184708476
                      },
                      {
                        "nodeid": 40,
                        "leaf": 0.435025215
                      }
                    ]
                  },
                  {
                    "nodeid": 20,
                    "depth": 4,
                    "split": "seasonal_index",
                    "split_condition": 0.142857149,
                    "yes": 41,
                    "no": 42,
                    "missing": 42,
                    "children": [
                      {
                        "nodeid": 41,
                        "leaf": 0.425640434
                      },
                      {
                        "nodeid": 42,
                        "leaf": 1.28407145
                      }
                    ]
                  }
                ]
              },
              {
                "nodeid": 10,
                "depth": 3,
                "split": "route_id_encoded",
                "split_condition": 1521.375,
                "yes": 21,
                "no": 22,
                "missing": 22,
                "children": [
                  {
                    "nodeid": 21,
                    "depth": 4,
                    "split": "item_id_encoded",
                    "split_condition": 122.800003,
                    "yes": 43,
                    "no": 44,
                    "missing": 44,
                    "children": [
                      {
                        "nodeid": 43,
                        "leaf": -0.110947214
                      },
                      {
                        "nodeid": 44,
                        "leaf": -0.771681368
                      }
                    ]
                  },
                  {
                    "nodeid": 22,
                    "depth": 4,
                    "split": "item_id_encoded",
                    "split_condition": 162.428574,
                    "yes": 45,
                    "no": 46,
                    "missing": 46,
                    "children": [
                      {
                        "nodeid": 45,
                        "leaf": 12.7811604
                      },
                      {
                        "nodeid": 46,
                        "leaf": 3.46490979
                      }
                    ]
                  }
                ]
              }
            ]
          }
        ]
      },
      {
        "nodeid": 2,
        "depth": 1,
        "split": "month_sin",
        "split_condition": 1,
        "yes": 5,
        "no": 6,
        "missing": 6,
        "children": [
          {
            "nodeid": 5,
            "depth": 2,
            "split": "month_cos",
            "split_condition": -0.866025388,
            "yes": 11,
            "no": 12,
            "missing": 12,
            "children": [
              {
                "nodeid": 11,
                "depth": 3,
                "split": "customer_coverage",
                "split_condition": 11,
                "yes": 23,
                "no": 24,
                "missing": 24,
                "children": [
                  {
                    "nodeid": 23,
                    "depth": 4,
                    "split": "route_avg_all",
                    "split_condition": 19.0720062,
                    "yes": 47,
                    "no": 48,
                    "missing": 48,
                    "children": [
                      {
                        "nodeid": 47,
                        "leaf": 0.464060873
                      },
                      {
                        "nodeid": 48,
                        "leaf": -0.482665688
                      }
                    ]
                  },
                  {
                    "nodeid": 24,
                    "depth": 4,
                    "split": "item_id_encoded",
                    "split_condition": 737.625,
                    "yes": 49,
                    "no": 50,
                    "missing": 50,
                    "children": [
                      {
                        "nodeid": 49,
                        "leaf": 4.94854164
                      },
                      {
                        "nodeid": 50,
                        "leaf": -0.404867113
                      }
                    ]
                  }
                ]
              },
              {
                "nodeid": 12,
                "depth": 3,
                "split": "item_id_encoded",
                "split_condition": 850,
                "yes": 25,
                "no": 26,
                "missing": 26,
                "children": [
                  {
                    "nodeid": 25,
                    "depth": 4,
                    "split": "seasonal_index",
                    "split_condition": 0.103773586,
                    "yes": 51,
                    "no": 52,
                    "missing": 52,
                    "children": [
                      {
                        "nodeid": 51,
                        "leaf": 0.981389999
                      },
                      {
                        "nodeid": 52,
                        "leaf": 2.87107754
                      }
                    ]
                  },
                  {
                    "nodeid": 26,
                    "depth": 4,
                    "split": "route_id_encoded",
                    "split_condition": 1128.59998,
                    "yes": 53,
                    "no": 54,
                    "missing": 54,
                    "children": [
                      {
                        "nodeid": 53,
                        "leaf": 4.6633749
                      },
                      {
                        "nodeid": 54,
                        "leaf": 0.429775864
                      }
                    ]
                  }
                ]
              }
            ]
          },
          {
            "nodeid": 6,
            "depth": 2,
            "split": "route_item_avg",
            "split_condition": 100,
            "yes": 13,
            "no": 14,
            "missing": 14,
            "children": [
              {
                "nodeid": 13,
                "depth": 3,
                "split": "route_avg_all",
                "split_condition": 23.4243488,
                "yes": 27,
                "no": 28,
                "missing": 28,
                "children": [
                  {
                    "nodeid": 27,
                    "depth": 4,
                    "split": "seasonal_index",
                    "split_condition": 0.107142858,
                    "yes": 55,
                    "no": 56,
                    "missing": 56,
                    "children": [
                      {
                        "nodeid": 55,
                        "leaf": 0.681376874
                      },
                      {
                        "nodeid": 56,
                        "leaf": 4.17197037
                      }
                    ]
                  },
                  {
                    "nodeid": 28,
                    "depth": 4,
                    "split": "last90",
                    "split_condition": 164,
                    "yes": 57,
                    "no": 58,
                    "missing": 58,
                    "children": [
                      {
                        "nodeid": 57,
                        "leaf": 6.90589333
                      },
                      {
                        "nodeid": 58,
                        "leaf": -0.681345403
                      }
                    ]
                  }
                ]
              },
              {
                "nodeid": 14,
                "depth": 3,
                "split": "seasonal_index",
                "split_condition": 0.114285715,
                "yes": 29,
                "no": 30,
                "missing": 30,
                "children": [
                  {
                    "nodeid": 29,
                    "depth": 4,
                    "split": "route_id_encoded",
                    "split_condition": 608.5,
                    "yes": 59,
                    "no": 60,
                    "missing": 60,
                    "children": [
                      {
                        "nodeid": 59,
                        "leaf": 0.0867233574
                      },
                      {
                        "nodeid": 60,
                        "leaf": 7.15766478
                      }
                    ]
                  },
                  {
                    "nodeid": 30,
                    "depth": 4,
                    "split": "last90",
                    "split_condition": 0.899999976,
                    "yes": 61,
                    "no": 62,
                    "missing": 62,
                    "children": [
                      {
                        "nodeid": 61,
                        "leaf": 29.5149651
                      },
                      {
                        "nodeid": 62,
                        "leaf": 9.06857014
                      }
                    ]
                  }
                ]
              }
            ]
          }
        ]
      }
    ]
  },
  {
    "nodeid": 0,
    "depth": 0,
    "split": "item_id_encoded",
    "split_condition": 334.545441,
    "yes": 1,
    "no": 2,
    "missing": 2,
    "children": [
      {
        "nodeid": 1,
        "depth": 1,
        "split": "item_id_encoded",
        "split_condition": 159,
        "yes": 3,
        "no": 4,
        "missing": 4,
        "children": [
          {
            "nodeid": 3,
            "depth": 2,
            "split": "monthly_avg",
            "split_condition": 44,
            "yes": 7,
            "no": 8,
            "missing": 8,
            "children": [
              {
                "nodeid": 7,
                "depth": 3,
                "split": "item_id_encoded",
                "split_condition": 33.4000015,
                "yes": 15,
                "no": 16,
                "missing": 16,
                "children": [
                  {
                    "nodeid": 15,
                    "depth": 4,
                    "split": "month_cos",
                    "split_condition": 6.12323426e-17,
                    "yes": 31,
                    "no": 32,
                    "missing": 32,
                    "children": [
                      {
                        "nodeid": 31,
                        "leaf": -0.00954307709
                      },
                      {
                        "nodeid": 32,
                        "leaf": 0.0489231423
                      }
                    ]
                  },
                  {
                    "nodeid": 16,
                    "depth": 4,
                    "split": "month_cos",
                    "split_condition": 6.12323426e-17,
                    "yes": 33,
                    "no": 34,
                    "missing": 34,
                    "children": [
                      {
                        "nodeid": 33,
                        "leaf": 0.0953033939
                      },
                      {
                        "nodeid": 34,
                        "leaf": 0.251540035
                      }
                    ]
                  }
                ]
              },
              {
                "nodeid": 8,
                "depth": 3,
                "split": "route_item_avg",
                "split_condition": 66.6666641,
                "yes": 17,
                "no": 18,
                "missing": 18,
                "children": [
                  {
                    "nodeid": 17,
                    "depth": 4,
                    "split": "monthly_avg",
                    "split_condition": 54.5714302,
                    "yes": 35,
                    "no": 36,
                    "missing": 36,
                    "children": [
                      {
                        "nodeid": 35,
                        "leaf": 3.38789105
                      },
                      {
                        "nodeid": 36,
                        "leaf": -0.236387014
                      }
                    ]
                  },
                  {
                    "nodeid": 18,
                    "leaf": 9.50089931
                  }
                ]
              }
            ]
          },
          {
            "nodeid": 4,
            "depth": 2,
            "split": "route_avg_all",
            "split_condition": 13.1498966,
            "yes": 9,
            "no": 10,
            "missing": 10,
            "children": [
              {
                "nodeid": 9,
                "depth": 3,
                "split": "route_avg_all",
                "split_condition": 12.5764256,
                "yes": 19,
                "no": 20,
                "missing": 20,
                "children": [
                  {
                    "nodeid": 19,
                    "depth": 4,
                    "split": "last90",
                    "split_condition": 28,
                    "yes": 37,
                    "no": 38,
                    "missing": 38,
                    "children": [
                      {
                        "nodeid": 37,
                        "leaf": 0.0679564476
                      },
                      {
                        "nodeid": 38,
                        "leaf": -0.346568137
                      }
                    ]
                  },
                  {
                    "nodeid": 20,
                    "depth": 4,
                    "split": "route_id_encoded",
                    "split_condition": 265.200012,
                    "yes": 39,
                    "no": 40,
                    "missing": 40,
                    "children": [
                      {
                        "nodeid": 39,
                        "leaf": -0.306095779
                      },
                      {
                        "nodeid": 40,
                        "leaf": -0.480993062
                      }
                    ]
                  }
                ]
              },
              {
                "nodeid": 10,
                "depth": 3,
                "split": "month_sin",
                "split_condition": 1.22464685e-16,
                "yes": 21,
                "no": 22,
                "missing": 22,
                "children": [
                  {
                    "nodeid": 21,
                    "depth": 4,
                    "split": "item_id_encoded",
                    "split_condition": 221.714279,
                    "yes": 41,
                    "no": 42,
                    "missing": 42,
                    "children": [
                      {
                        "nodeid": 41,
                        "leaf": 0.205065876
                      },
                      {
                        "nodeid": 42,
                        "leaf": 2.16977096
                      }
                    ]
                  },
                  {
                    "nodeid": 22,
                    "depth": 4,
                    "split": "item_id_encoded",
                    "split_condition": 162.428574,
                    "yes": 43,
                    "no": 44,
                    "missing": 44,
                    "children": [
                      {
                        "nodeid": 43,
                        "leaf": 1.37156272
                      },
                      {
                        "nodeid": 44,
                        "leaf": 0.467871815
                      }
                    ]
                  }
                ]
              }
            ]
          }
        ]
      },
      {
        "nodeid": 2,
        "depth": 1,
        "split": "month_sin",
        "split_condition": 1,
        "yes": 5,
        "no": 6,
        "missing": 6,
        "children": [
          {
            "nodeid": 5,
            "depth": 2,
            "split": "month_cos",
            "split_condition": -0.866025388,
            "yes": 11,
            "no": 12,
            "missing": 12,
            "children": [
              {
                "nodeid": 11,
                "depth": 3,
                "split": "customer_coverage",
                "split_condition": 10,
                "yes": 23,
                "no": 24,
                "missing": 24,
                "children": [
                  {
                    "nodeid": 23,
                    "depth": 4,
                    "split": "route_avg_all",
                    "split_condition": 17.0832634,
                    "yes": 45,
                    "no": 46,
                    "missing": 46,
                    "children": [
                      {
                        "nodeid": 45,
                        "leaf": 0.549227536
                      },
                      {
                        "nodeid": 46,
                        "leaf": -0.377510101
                      }
                    ]
                  },
                  {
                    "nodeid": 24,
                    "depth": 4,
                    "split": "last90",
                    "split_condition": 78,
                    "yes": 47,
                    "no": 48,
                    "missing": 48,
                    "children": [
                      {
                        "nodeid": 47,
                        "leaf": 5.97213221
                      },
                      {
                        "nodeid": 48,
                        "leaf": 0.305045903
                      }
                    ]
                  }
                ]
              },
              {
                "nodeid": 12,
                "depth": 3,
                "split": "monthly_avg",
                "split_condition": 44,
                "yes": 25,
                "no": 26,
                "missing": 26,
                "children": [
                  {
                    "nodeid": 25,
                    "depth": 4,
                    "split": "item_id_encoded",
                    "split_condition": 778.428589,
                    "yes": 49,
                    "no": 50,
                    "missing": 50,
                    "children": [
                      {
                        "nodeid": 49,
                        "leaf": 0.955987096
                      },
                      {
                        "nodeid": 50,
                        "leaf": 2.89625263
                      }
                    ]
                  },
                  {
                    "nodeid": 26,
                    "depth": 4,
                    "split": "route_avg_all",
                    "split_condition": 19.5563126,
                    "yes": 51,
                    "no": 52,
                    "missing": 52,
                    "children": [
                      {
                        "nodeid": 51,
                        "leaf": 3.46441603
                      },
                      {
                        "nodeid": 52,
                        "leaf": 0.461397618
                      }
                    ]
                  }
                ]
              }
            ]
          },
          {
            "nodeid": 6,
            "depth": 2,
            "split": "monthly_avg",
            "split_condition": 75,
            "yes": 13,
            "no": 14,
            "missing": 14,
            "children": [
              {
